{"learner":{"attributes":{},"feature_names":["sex","age","sq2","sq3","sq5","ps5","pef"],"feature_types":["int","int","int","int","int","int","float"],"gradient_booster":{"model":{"cats":{"enc":[],"feature_segments":[],"sorted_idx":[]},"gbtree_model_param":{"num_parallel_tree":"1","num_trees":"65"},"iteration_indptr":[0,1,2,3,4,5,6,7,8,9,10,11,12,13,14,15,16,17,18,19,20,21,22,23,24,25,26,27,28,29,30,31,32,33,34,35,36,37,38,39,40,41,42,43,44,45,46,47,48,49,50,51,52,53,54,55,56,57,58,59,60,61,62,63,64,65],"tree_info":[0,0,0,0,0,0,0,0,0,0,0,0,0,0,0,0,0,0,0,0,0,0,0,0,0,0,0,0,0,0,0,0,0,0,0,0,0,0,0,0,0,0,0,0,0,0,0,0,0,0,0,0,0,0,0,0,0,0,0,0,0,0,0,0,0],"trees":[{"base_weights":[-4.2544246E-2,5.8739984E-1,-6.352539E-1,-2.5897238E-2,1.8799262E-1,-2.6513113E-2,-8.5351884E-2],"categories":[],"categories_nodes":[],"categories_segments":[],"categories_sizes":[],"default_left":[0,0,0,0,0,0,0],"id":0,"left_children":[1,3,5,-1,-1,-1,-1],"loss_changes":[3.969158E1,5.7230286E1,3.6666527E0,0E0,0E0,0E0,0E0],"parents":[2147483647,0,0,1,1,2,2],"right_children":[2,4,6,-1,-1,-1,-1],"split_conditions":[3.09E2,1E0,3.77E2,-2.5897238E-2,1.8799262E-1,-2.6513113E-2,-8.5351884E-2],"split_indices":[6,0,6,0,0,0,0],"split_type":[0,0,0,0,0,0,0],"sum_hessian":[1.042417E2,5.012897E1,5.411273E1,3.0542154E1,1.9586817E1,2.1744686E1,3.2368042E1],"tree_param":{"num_deleted":"0","num_feature":"7","num_nodes":"7","size_leaf_vector":"1"}},{"base_weights":[6.198775E-2,-2.1765253E-1,1.5807804E0,-6.757018E-2,1.265002E-2,7.749644E-2,2.0585047E-1],"categories":[],"categories_nodes":[],"categories_segments":[],"categories_sizes":[],"default_left":[0,0,0,0,0,0,0],"id":1,"left_children":[1,3,5,-1,-1,-1,-1],"loss_changes":[4.5652298E1,1.4443082E1,3.431099E0,0E0,0E0,0E0,0E0],"parents":[2147483647,0,0,1,1,2,2],"right_children":[2,4,6,-1,-1,-1,-1],"split_conditions":[1E0,1E0,6.9E1,-6.757018E-2,1.265002E-2,7.749644E-2,2.0585047E-1],"split_indices":[5,0,1,0,0,0,0],"split_type":[0,0,0,0,0,0,0],"sum_hessian":[1.04074265E2,8.833711E1,1.5737154E1,3.8107494E1,5.0229614E1,7.222763E0,8.51439E0],"tree_param":{"num_deleted":"0","num_feature":"7","num_nodes":"7","size_leaf_vector":"1"}},{"base_weights":[1.5152286E-2,-2.1543388E-1,1.2349786E0,-6.310188E-2,7.519509E-3,5.2096613E-2,1.7029445E-1],"categories":[],"categories_nodes":[],"categories_segments":[],"categories_sizes":[],"default_left":[0,0,0,0,0,0,0],"id":2,"left_children":[1,3,5,-1,-1,-1,-1],"loss_changes":[3.0247517E1,1.1029932E1,3.7315865E0,0E0,0E0,0E0,0E0],"parents":[2147483647,0,0,1,1,2,2],"right_children":[2,4,6,-1,-1,-1,-1],"split_conditions":[1E0,1E0,2E0,-6.310188E-2,7.519509E-3,5.2096613E-2,1.7029445E-1],"split_indices":[5,0,2,0,0,0,0],"split_type":[0,0,0,0,0,0,0],"sum_hessian":[1.0377889E2,8.762791E1,1.6150982E1,3.6287613E1,5.1340294E1,7.654152E0,8.49683E0],"tree_param":{"num_deleted":"0","num_feature":"7","num_nodes":"7","size_leaf_vector":"1"}},{"base_weights":[-0E0,6.4661324E-1,-6.1645705E-1,-5.2594612E-3,1.5481119E-1,-2.0295395E-2,-8.917981E-2],"categories":[],"categories_nodes":[],"categories_segments":[],"categories_sizes":[],"default_left":[0,0,0,0,0,0,0],"id":3,"left_children":[1,3,5,-1,-1,-1,-1],"loss_changes":[4.3577545E1,3.458163E1,5.6199284E0,0E0,0E0,0E0,0E0],"parents":[2147483647,0,0,1,1,2,2],"right_children":[2,4,6,-1,-1,-1,-1],"split_conditions":[3.07E2,1E0,3.77E2,-5.2594612E-3,1.5481119E-1,-2.0295395E-2,-8.917981E-2],"split_indices":[6,0,6,0,0,0,0],"split_type":[0,0,0,0,0,0,0],"sum_hessian":[1.0730492E2,5.2546852E1,5.475806E1,2.9811722E1,2.273513E1,2.3307795E1,3.1450266E1],"tree_param":{"num_deleted":"0","num_feature":"7","num_nodes":"7","size_leaf_vector":"1"}},{"base_weights":[2.279946E-2,5.735195E-1,-5.2902806E-1,-1.217948E-2,1.3664657E-1,-1.656809E-2,-7.7849515E-2],"categories":[],"categories_nodes":[],"categories_segments":[],"categories_sizes":[],"default_left":[0,0,0,0,0,0,0],"id":4,"left_children":[1,3,5,-1,-1,-1,-1],"loss_changes":[3.240402E1,3.0431221E1,4.184079E0,0E0,0E0,0E0,0E0],"parents":[2147483647,0,0,1,1,2,2],"right_children":[2,4,6,-1,-1,-1,-1],"split_conditions":[3.09E2,1E0,3.77E2,-1.217948E-2,1.3664657E-1,-1.656809E-2,-7.7849515E-2],"split_indices":[6,0,6,0,0,0,0],"split_type":[0,0,0,0,0,0,0],"sum_hessian":[1.04554794E2,5.276373E1,5.179107E1,2.8227549E1,2.453618E1,2.2576687E1,2.9214382E1],"tree_param":{"num_deleted":"0","num_feature":"7","num_nodes":"7","size_leaf_vector":"1"}},{"base_weights":[-1.5125308E-2,4.4307804E-1,-5.768676E-1,-1.1611319E-2,1.05647795E-1,-1.9980846E-2,-7.71551E-2],"categories":[],"categories_nodes":[],"categories_segments":[],"categories_sizes":[],"default_left":[0,0,0,0,0,0,0],"id":5,"left_children":[1,3,5,-1,-1,-1,-1],"loss_changes":[2.767006E1,2.069056E1,2.9318619E0,0E0,0E0,0E0,0E0],"parents":[2147483647,0,0,1,1,2,2],"right_children":[2,4,6,-1,-1,-1,-1],"split_conditions":[3.2E2,1E0,3.74E2,-1.1611319E-2,1.05647795E-1,-1.9980846E-2,-7.71551E-2],"split_indices":[6,2,6,0,0,0,0],"split_type":[0,0,0,0,0,0,0],"sum_hessian":[1.0524864E2,5.7592552E1,4.7656086E1,3.0125208E1,2.7467344E1,1.7791819E1,2.9864267E1],"tree_param":{"num_deleted":"0","num_feature":"7","num_nodes":"7","size_leaf_vector":"1"}},{"base_weights":[-5.8437906E-2,3.948974E-1,-5.532323E-1,2.7894876E-3,1.8938091E-1,-2.126366E-2,-7.956671E-2],"categories":[],"categories_nodes":[],"categories_segments":[],"categories_sizes":[],"default_left":[0,0,0,0,0,0,0],"id":6,"left_children":[1,3,5,-1,-1,-1,-1],"loss_changes":[2.40926E1,2.9471096E1,3.5927868E0,0E0,0E0,0E0,0E0],"parents":[2147483647,0,0,1,1,2,2],"right_children":[2,4,6,-1,-1,-1,-1],"split_conditions":[3.05E2,1E0,3.77E2,2.7894876E-3,1.8938091E-1,-2.126366E-2,-7.956671E-2],"split_indices":[6,5,6,0,0,0,0],"split_type":[0,0,0,0,0,0,0],"sum_hessian":[1.0508176E2,5.4416355E1,5.06654E1,4.479955E1,9.616805E0,2.2705719E1,2.7959682E1],"tree_param":{"num_deleted":"0","num_feature":"7","num_nodes":"7","size_leaf_vector":"1"}},{"base_weights":[-6.877174E-2,6.40863E-1,-4.0951952E-1,1.732249E-2,2.2159974E-1,-1.626974E-2,-7.897092E-2],"categories":[],"categories_nodes":[],"categories_segments":[],"categories_sizes":[],"default_left":[0,0,0,0,0,0,0],"id":7,"left_children":[1,3,5,-1,-1,-1,-1],"loss_changes":[2.5341728E1,2.3255745E1,6.102913E0,0E0,0E0,0E0,0E0],"parents":[2147483647,0,0,1,1,2,2],"right_children":[2,4,6,-1,-1,-1,-1],"split_conditions":[2.47E2,1E0,3.77E2,1.732249E-2,2.2159974E-1,-1.626974E-2,-7.897092E-2],"split_indices":[6,5,6,0,0,0,0],"split_type":[0,0,0,0,0,0,0],"sum_hessian":[1.031947E2,3.2714985E1,7.047971E1,2.6326406E1,6.3885794E0,4.4398758E1,2.6080957E1],"tree_param":{"num_deleted":"0","num_feature":"7","num_nodes":"7","size_leaf_vector":"1"}},{"base_weights":[-5.896397E-3,3.7981284E-1,-5.18415E-1,-9.7979065E-3,8.858829E-2,2.8107285E-3,-6.9360115E-2],"categories":[],"categories_nodes":[],"categories_segments":[],"categories_sizes":[],"default_left":[0,0,0,0,0,0,0],"id":8,"left_children":[1,3,5,-1,-1,-1,-1],"loss_changes":[2.0523903E1,1.4623874E1,4.6591196E0,0E0,0E0,0E0,0E0],"parents":[2147483647,0,0,1,1,2,2],"right_children":[2,4,6,-1,-1,-1,-1],"split_conditions":[3.14E2,1E0,6.4E1,-9.7979065E-3,8.858829E-2,2.8107285E-3,-6.9360115E-2],"split_indices":[6,0,1,0,0,0,0],"split_type":[0,0,0,0,0,0,0],"sum_hessian":[1.0147561E2,5.749192E1,4.398369E1,2.947876E1,2.8013159E1,1.0187509E1,3.379618E1],"tree_param":{"num_deleted":"0","num_feature":"7","num_nodes":"7","size_leaf_vector":"1"}},{"base_weights":[8.10764E-3,5.6823194E-1,-2.5067508E-1,1.4031663E-2,1.9249837E-1,-6.1743017E-2,2.3032166E-3],"categories":[],"categories_nodes":[],"categories_segments":[],"categories_sizes":[],"default_left":[0,0,0,0,0,0,0],"id":9,"left_children":[1,3,5,-1,-1,-1,-1],"loss_changes":[1.4821176E1,1.760771E1,7.1977153E0,0E0,0E0,0E0,0E0],"parents":[2147483647,0,0,1,1,2,2],"right_children":[2,4,6,-1,-1,-1,-1],"split_conditions":[2.47E2,1E0,2E0,1.4031663E-2,1.9249837E-1,-6.1743017E-2,2.3032166E-3],"split_indices":[6,5,2,0,0,0,0],"split_type":[0,0,0,0,0,0,0],"sum_hessian":[9.917183E1,3.157197E1,6.759986E1,2.5120872E1,6.4510975E0,2.9133406E1,3.8466454E1],"tree_param":{"num_deleted":"0","num_feature":"7","num_nodes":"7","size_leaf_vector":"1"}},{"base_weights":[-1.1026967E-2,-2.1205571E-1,8.242693E-1,-6.3300945E-2,6.7994394E-3,1.6584373E-1,1.3643954E-3],"categories":[],"categories_nodes":[],"categories_segments":[],"categories_sizes":[],"default_left":[0,0,0,0,0,0,0],"id":10,"left_children":[1,3,5,-1,-1,-1,-1],"loss_changes":[1.706594E1,1.0207588E1,1.2387174E1,0E0,0E0,0E0,0E0],"parents":[2147483647,0,0,1,1,2,2],"right_children":[2,4,6,-1,-1,-1,-1],"split_conditions":[1E0,1E0,2.49E2,-6.3300945E-2,6.7994394E-3,1.6584373E-1,1.3643954E-3],"split_indices":[5,0,6,0,0,0,0],"split_type":[0,0,0,0,0,0,0],"sum_hessian":[1.0141427E2,8.282556E1,1.8588709E1,3.329846E1,4.95271E1,8.341878E0,1.024683E1],"tree_param":{"num_deleted":"0","num_feature":"7","num_nodes":"7","size_leaf_vector":"1"}},{"base_weights":[1.6172057E-2,2.379635E-1,-7.291954E-2,-2.4381598E-2,6.9243446E-2],"categories":[],"categories_nodes":[],"categories_segments":[],"categories_sizes":[],"default_left":[0,0,0,0,0],"id":11,"left_children":[1,3,-1,-1,-1],"loss_changes":[1.6305984E1,1.7389044E1,0E0,0E0,0E0],"parents":[2147483647,0,0,1,1],"right_children":[2,4,-1,-1,-1],"split_conditions":[3.77E2,1E0,-7.291954E-2,-2.4381598E-2,6.9243446E-2],"split_indices":[6,0,0,0,0],"split_type":[0,0,0,0,0],"sum_hessian":[9.807128E1,7.6622925E1,2.1448357E1,3.688495E1,3.973798E1],"tree_param":{"num_deleted":"0","num_feature":"7","num_nodes":"5","size_leaf_vector":"1"}},{"base_weights":[5.597931E-2,5.8674526E-1,-2.0831695E-1,-3.3034366E-2,9.8781176E-2,-6.453059E-2,-0E0],"categories":[],"categories_nodes":[],"categories_segments":[],"categories_sizes":[],"default_left":[0,0,0,0,0,0,0],"id":12,"left_children":[1,3,5,-1,-1,-1,-1],"loss_changes":[1.4128772E1,1.3026099E1,6.001265E0,0E0,0E0,0E0,0E0],"parents":[2147483647,0,0,1,1,2,2],"right_children":[2,4,6,-1,-1,-1,-1],"split_conditions":[2.47E2,2E0,1E0,-3.3034366E-2,9.8781176E-2,-6.453059E-2,-0E0],"split_indices":[6,4,0,0,0,0,0],"split_type":[0,0,0,0,0,0,0],"sum_hessian":[9.7498604E1,3.263401E1,6.486459E1,9.603671E0,2.3030338E1,2.0275463E1,4.4589127E1],"tree_param":{"num_deleted":"0","num_feature":"7","num_nodes":"7","size_leaf_vector":"1"}},{"base_weights":[-7.248623E-2,1.0512724E-1,-6.8112694E-2,-2.6453426E-2,4.6709657E-2],"categories":[],"categories_nodes":[],"categories_segments":[],"categories_sizes":[],"default_left":[0,0,0,0,0],"id":13,"left_children":[1,3,-1,-1,-1],"loss_changes":[1.09031315E1,1.0358032E1,0E0,0E0,0E0],"parents":[2147483647,0,0,1,1],"right_children":[2,4,-1,-1,-1],"split_conditions":[3.77E2,1E0,-6.8112694E-2,-2.6453426E-2,4.6709657E-2],"split_indices":[6,2,0,0,0],"split_type":[0,0,0,0,0],"sum_hessian":[9.653241E1,7.473038E1,2.1802034E1,3.642211E1,3.8308266E1],"tree_param":{"num_deleted":"0","num_feature":"7","num_nodes":"5","size_leaf_vector":"1"}},{"base_weights":[-2.697683E-2,2.4853744E-1,-4.1636762E-1,-2.7862236E-2,5.2349746E-2,-0E0,-5.3146053E-2],"categories":[],"categories_nodes":[],"categories_segments":[],"categories_sizes":[],"default_left":[0,0,0,0,0,0,0],"id":14,"left_children":[1,3,5,-1,-1,-1,-1],"loss_changes":[1.0554574E1,8.452987E0,1.8148675E0,0E0,0E0,0E0,0E0],"parents":[2147483647,0,0,1,1,2,2],"right_children":[2,4,6,-1,-1,-1,-1],"split_conditions":[3.09E2,2E0,6.4E1,-2.7862236E-2,5.2349746E-2,-0E0,-5.3146053E-2],"split_indices":[6,4,1,0,0,0,0],"split_type":[0,0,0,0,0,0,0],"sum_hessian":[9.563417E1,5.5466446E1,4.016773E1,1.8385523E1,3.708092E1,9.474409E0,3.069332E1],"tree_param":{"num_deleted":"0","num_feature":"7","num_nodes":"7","size_leaf_vector":"1"}},{"base_weights":[-3.9327604E-4,1.08612955E-1,-9.011446E-2,-4.70406E-2,1.3098721E-2],"categories":[],"categories_nodes":[],"categories_segments":[],"categories_sizes":[],"default_left":[0,0,0,0,0],"id":15,"left_children":[1,-1,3,-1,-1],"loss_changes":[9.093904E0,0E0,7.9089823E0,0E0,0E0],"parents":[2147483647,0,0,2,2],"right_children":[2,-1,4,-1,-1],"split_conditions":[1.76E2,1.08612955E-1,1E0,-4.70406E-2,1.3098721E-2],"split_indices":[6,0,0,0,0],"split_type":[0,0,0,0,0],"sum_hessian":[9.6390594E1,6.0802603E0,9.031033E1,3.361937E1,5.669096E1],"tree_param":{"num_deleted":"0","num_feature":"7","num_nodes":"5","size_leaf_vector":"1"}},{"base_weights":[-2.5500132E-2,-1.8688972E-1,6.608067E-1,-1.8885583E-3,-7.0741296E-2,1.3070813E-1,-0E0],"categories":[],"categories_nodes":[],"categories_segments":[],"categories_sizes":[],"default_left":[0,0,0,0,0,0,0],"id":16,"left_children":[1,3,5,-1,-1,-1,-1],"loss_changes":[1.0256764E1,6.3720036E0,6.89822E0,0E0,0E0,0E0,0E0],"parents":[2147483647,0,0,1,1,2,2],"right_children":[2,4,6,-1,-1,-1,-1],"split_conditions":[1E0,3.74E2,2.49E2,-1.8885583E-3,-7.0741296E-2,1.3070813E-1,-0E0],"split_indices":[5,6,6,0,0,0,0],"split_type":[0,0,0,0,0,0,0],"sum_hessian":[9.262554E1,7.616991E1,1.6455633E1,5.909368E1,1.707623E1,7.4991627E0,8.9564705E0],"tree_param":{"num_deleted":"0","num_feature":"7","num_nodes":"7","size_leaf_vector":"1"}},{"base_weights":[1.842229E-2,4.2929575E-1,-2.0011222E-1,-2.5698645E-2,7.463351E-2,-5.988347E-2,-1.19923E-3],"categories":[],"categories_nodes":[],"categories_segments":[],"categories_sizes":[],"default_left":[0,0,0,0,0,0,0],"id":17,"left_children":[1,3,5,-1,-1,-1,-1],"loss_changes":[8.624422E0,7.7659407E0,4.272732E0,0E0,0E0,0E0,0E0],"parents":[2147483647,0,0,1,1,2,2],"right_children":[2,4,6,-1,-1,-1,-1],"split_conditions":[2.47E2,2E0,1E0,-2.5698645E-2,7.463351E-2,-5.988347E-2,-1.19923E-3],"split_indices":[6,4,0,0,0,0,0],"split_type":[0,0,0,0,0,0,0],"sum_hessian":[9.281802E1,3.2686558E1,6.0131466E1,9.890127E0,2.279643E1,1.7724028E1,4.2407436E1],"tree_param":{"num_deleted":"0","num_feature":"7","num_nodes":"7","size_leaf_vector":"1"}},{"base_weights":[4.6863586E-2,-1.0443151E-1,7.3692447E-1,3.9116545E-3,-6.322027E-2,1.3879432E-1,1.3798933E-2],"categories":[],"categories_nodes":[],"categories_segments":[],"categories_sizes":[],"default_left":[0,0,0,0,0,0,0],"id":18,"left_children":[1,3,5,-1,-1,-1,-1],"loss_changes":[1.0385978E1,6.2899685E0,6.036704E0,0E0,0E0,0E0,0E0],"parents":[2147483647,0,0,1,1,2,2],"right_children":[2,4,6,-1,-1,-1,-1],"split_conditions":[1E0,3.74E2,2.49E2,3.9116545E-3,-6.322027E-2,1.3879432E-1,1.3798933E-2],"split_indices":[5,6,6,0,0,0,0],"split_type":[0,0,0,0,0,0,0],"sum_hessian":[9.471362E1,7.778372E1,1.6929907E1,6.1134342E1,1.6649378E1,7.080988E0,9.848918E0],"tree_param":{"num_deleted":"0","num_feature":"7","num_nodes":"7","size_leaf_vector":"1"}},{"base_weights":[2.4139544E-2,1.0729996E-1,-5.504768E-2,-4.601862E-2,1.8186124E-2],"categories":[],"categories_nodes":[],"categories_segments":[],"categories_sizes":[],"default_left":[0,0,0,0,0],"id":19,"left_children":[1,-1,3,-1,-1],"loss_changes":[8.272205E0,0E0,8.549656E0,0E0,0E0],"parents":[2147483647,0,0,2,2],"right_children":[2,-1,4,-1,-1],"split_conditions":[1.75E2,1.0729996E-1,1E0,-4.601862E-2,1.8186124E-2],"split_indices":[6,0,0,0,0],"split_type":[0,0,0,0,0],"sum_hessian":[9.17583E1,6.0035357E0,8.575476E1,3.2073627E1,5.3681133E1],"tree_param":{"num_deleted":"0","num_feature":"7","num_nodes":"5","size_leaf_vector":"1"}},{"base_weights":[4.062566E-2,1.8565482E-1,-4.878332E-1,-1.17612695E-2,4.4773262E-2,-0E0,-7.022962E-2],"categories":[],"categories_nodes":[],"categories_segments":[],"categories_sizes":[],"default_left":[0,0,0,0,0,0,0],"id":20,"left_children":[1,3,5,-1,-1,-1,-1],"loss_changes":[7.1748924E0,6.2218404E0,1.9408193E0,0E0,0E0,0E0,0E0],"parents":[2147483647,0,0,1,1,2,2],"right_children":[2,4,6,-1,-1,-1,-1],"split_conditions":[3.77E2,1E0,6.6E1,-1.17612695E-2,4.4773262E-2,-0E0,-7.022962E-2],"split_indices":[6,2,1,0,0,0,0],"split_type":[0,0,0,0,0,0,0],"sum_hessian":[9.3405396E1,7.454285E1,1.8862549E1,3.3927036E1,4.061581E1,6.3437667E0,1.2518783E1],"tree_param":{"num_deleted":"0","num_feature":"7","num_nodes":"7","size_leaf_vector":"1"}},{"base_weights":[3.8489744E-3,1.3734917E-1,-5.046875E-2,-1.8740453E-2,4.1106246E-2],"categories":[],"categories_nodes":[],"categories_segments":[],"categories_sizes":[],"default_left":[0,0,0,0,0],"id":21,"left_children":[1,3,-1,-1,-1],"loss_changes":[6.2567515E0,6.935244E0,0E0,0E0,0E0],"parents":[2147483647,0,0,1,1],"right_children":[2,4,-1,-1,-1],"split_conditions":[3.77E2,1E0,-5.046875E-2,-1.8740453E-2,4.1106246E-2],"split_indices":[6,0,0,0,0],"split_type":[0,0,0,0,0],"sum_hessian":[9.284489E1,7.489634E1,1.7948545E1,3.356314E1,4.13332E1],"tree_param":{"num_deleted":"0","num_feature":"7","num_nodes":"5","size_leaf_vector":"1"}},{"base_weights":[-3.0751452E-2,9.167643E-2,-1.1710664E-1,-3.963213E-2,3.1277703E-3],"categories":[],"categories_nodes":[],"categories_segments":[],"categories_sizes":[],"default_left":[0,0,0,0,0],"id":22,"left_children":[1,-1,3,-1,-1],"loss_changes":[7.1505175E0,0E0,3.705665E0,0E0,0E0],"parents":[2147483647,0,0,2,2],"right_children":[2,-1,4,-1,-1],"split_conditions":[1.75E2,9.167643E-2,1E0,-3.963213E-2,3.1277703E-3],"split_indices":[6,0,0,0,0],"split_type":[0,0,0,0,0],"sum_hessian":[8.99646E1,6.227568E0,8.373704E1,2.9647701E1,5.4089333E1],"tree_param":{"num_deleted":"0","num_feature":"7","num_nodes":"5","size_leaf_vector":"1"}},{"base_weights":[-6.0947523E-2,-2.056004E-1,5.329299E-1,-7.422983E-2,-7.0911176E-3,1.0409681E-1,9.2690205E-3],"categories":[],"categories_nodes":[],"categories_segments":[],"categories_sizes":[],"default_left":[0,0,0,0,0,0,0],"id":23,"left_children":[1,3,5,-1,-1,-1,-1],"loss_changes":[7.806825E0,4.960992E0,3.256137E0,0E0,0E0,0E0,0E0],"parents":[2147483647,0,0,1,1,2,2],"right_children":[2,4,6,-1,-1,-1,-1],"split_conditions":[1E0,1E0,2.49E2,-7.422983E-2,-7.0911176E-3,1.0409681E-1,9.2690205E-3],"split_indices":[5,3,6,0,0,0,0],"split_type":[0,0,0,0,0,0,0],"sum_hessian":[9.050598E1,7.398171E1,1.652427E1,1.3191987E1,6.0789722E1,6.5106554E0,1.0013614E1],"tree_param":{"num_deleted":"0","num_feature":"7","num_nodes":"7","size_leaf_vector":"1"}},{"base_weights":[-2.1881538E-2,-1.3975844E-1,4.6461162E-1,-6.1897594E-2,-1.3593616E-3,9.9219345E-2,-0E0],"categories":[],"categories_nodes":[],"categories_segments":[],"categories_sizes":[],"default_left":[0,0,0,0,0,0,0],"id":24,"left_children":[1,3,5,-1,-1,-1,-1],"loss_changes":[5.121595E0,4.2010875E0,4.1017766E0,0E0,0E0,0E0,0E0],"parents":[2147483647,0,0,1,1,2,2],"right_children":[2,4,6,-1,-1,-1,-1],"split_conditions":[1E0,1E0,2.49E2,-6.1897594E-2,-1.3593616E-3,9.9219345E-2,-0E0],"split_indices":[5,3,6,0,0,0,0],"split_type":[0,0,0,0,0,0,0],"sum_hessian":[9.001001E1,7.385539E1,1.6154615E1,1.3751875E1,6.010352E1,6.928139E0,9.226477E0],"tree_param":{"num_deleted":"0","num_feature":"7","num_nodes":"7","size_leaf_vector":"1"}},{"base_weights":[-4.5195397E-2,-1.5695423E-1,4.5470472E-2,-4.2726055E-2,-0E0],"categories":[],"categories_nodes":[],"categories_segments":[],"categories_sizes":[],"default_left":[0,0,0,0,0],"id":25,"left_children":[1,3,-1,-1,-1],"loss_changes":[4.9378667E0,3.2414012E0,0E0,0E0,0E0],"parents":[2147483647,0,0,1,1],"right_children":[2,4,-1,-1,-1],"split_conditions":[1E0,1E0,4.5470472E-2,-4.2726055E-2,-0E0],"split_indices":[5,0,0,0,0],"split_type":[0,0,0,0,0],"sum_hessian":[8.877145E1,7.392976E1,1.4841681E1,2.6867569E1,4.7062195E1],"tree_param":{"num_deleted":"0","num_feature":"7","num_nodes":"5","size_leaf_vector":"1"}},{"base_weights":[-0E0,3.1450364E-1,-1.413315E-1,-2.6460765E-2,5.9266817E-2,-6.362935E-2,-3.5432999E-3],"categories":[],"categories_nodes":[],"categories_segments":[],"categories_sizes":[],"default_left":[0,0,0,0,0,0,0],"id":26,"left_children":[1,3,5,-1,-1,-1,-1],"loss_changes":[3.882949E0,4.6087418E0,2.921924E0,0E0,0E0,0E0,0E0],"parents":[2147483647,0,0,1,1,2,2],"right_children":[2,4,6,-1,-1,-1,-1],"split_conditions":[2.36E2,2E0,1E0,-2.6460765E-2,5.9266817E-2,-6.362935E-2,-3.5432999E-3],"split_indices":[6,4,3,0,0,0,0],"split_type":[0,0,0,0,0,0,0],"sum_hessian":[8.720124E1,2.5618256E1,6.158299E1,7.745053E0,1.7873201E1,9.138811E0,5.2444176E1],"tree_param":{"num_deleted":"0","num_feature":"7","num_nodes":"7","size_leaf_vector":"1"}},{"base_weights":[-1.2328263E-3,1.8282543E-1,-2.8787667E-1,1.7998515E-3,6.799465E-2,-0E0,-3.805828E-2],"categories":[],"categories_nodes":[],"categories_segments":[],"categories_sizes":[],"default_left":[0,0,0,0,0,0,0],"id":27,"left_children":[1,3,5,-1,-1,-1,-1],"loss_changes":[4.8556733E0,4.094794E0,1.081898E0,0E0,0E0,0E0,0E0],"parents":[2147483647,0,0,1,1,2,2],"right_children":[2,4,6,-1,-1,-1,-1],"split_conditions":[3.09E2,7.5E1,6.4E1,1.7998515E-3,6.799465E-2,-0E0,-3.805828E-2],"split_indices":[6,1,1,0,0,0,0],"split_type":[0,0,0,0,0,0,0],"sum_hessian":[8.9041534E1,5.3382015E1,3.5659523E1,4.1623276E1,1.1758739E1,8.215109E0,2.7444414E1],"tree_param":{"num_deleted":"0","num_feature":"7","num_nodes":"7","size_leaf_vector":"1"}},{"base_weights":[-8.517054E-3,8.807821E-2,-7.053231E-2,-1.830673E-2,3.0414173E-2],"categories":[],"categories_nodes":[],"categories_segments":[],"categories_sizes":[],"default_left":[0,0,0,0,0],"id":28,"left_children":[1,3,-1,-1,-1],"loss_changes":[6.1903667E0,4.580043E0,0E0,0E0,0E0],"parents":[2147483647,0,0,1,1],"right_children":[2,4,-1,-1,-1],"split_conditions":[4.28E2,1E0,-7.053231E-2,-1.830673E-2,3.0414173E-2],"split_indices":[6,0,0,0,0],"split_type":[0,0,0,0,0],"sum_hessian":[8.546234E1,7.519449E1,1.0267856E1,3.2388115E1,4.2806374E1],"tree_param":{"num_deleted":"0","num_feature":"7","num_nodes":"5","size_leaf_vector":"1"}},{"base_weights":[3.8989256E-3,6.84014E-2,-5.5739563E-2,-2.0228101E-2,2.8799793E-2],"categories":[],"categories_nodes":[],"categories_segments":[],"categories_sizes":[],"default_left":[0,0,0,0,0],"id":29,"left_children":[1,3,-1,-1,-1],"loss_changes":[2.9766567E0,4.8887777E0,0E0,0E0,0E0],"parents":[2147483647,0,0,1,1],"right_children":[2,4,-1,-1,-1],"split_conditions":[4.48E2,1E0,-5.5739563E-2,-2.0228101E-2,2.8799793E-2],"split_indices":[6,2,0,0,0],"split_type":[0,0,0,0,0],"sum_hessian":[8.6917046E1,7.95449E1,7.3721533E0,3.4643745E1,4.490115E1],"tree_param":{"num_deleted":"0","num_feature":"7","num_nodes":"5","size_leaf_vector":"1"}},{"base_weights":[9.187743E-3,7.739332E-2,-5.1092517E-2,-4.564808E-2,2.8784878E-3],"categories":[],"categories_nodes":[],"categories_segments":[],"categories_sizes":[],"default_left":[0,0,0,0,0],"id":30,"left_children":[1,-1,3,-1,-1],"loss_changes":[4.4436026E0,0E0,2.869931E0,0E0,0E0],"parents":[2147483647,0,0,2,2],"right_children":[2,-1,4,-1,-1],"split_conditions":[1.76E2,7.739332E-2,1E0,-4.564808E-2,2.8784878E-3],"split_indices":[6,0,3,0,0],"split_type":[0,0,0,0,0],"sum_hessian":[8.669464E1,6.0753527E0,8.0619286E1,1.3524663E1,6.709462E1],"tree_param":{"num_deleted":"0","num_feature":"7","num_nodes":"5","size_leaf_vector":"1"}},{"base_weights":[5.1334114E-3,-9.094688E-2,4.3292043E-1,5.096873E-4,-5.4535646E-2,9.04182E-2,3.148745E-3],"categories":[],"categories_nodes":[],"categories_segments":[],"categories_sizes":[],"default_left":[0,0,0,0,0,0,0],"id":31,"left_children":[1,3,5,-1,-1,-1,-1],"loss_changes":[3.9403496E0,3.501534E0,2.8658166E0,0E0,0E0,0E0,0E0],"parents":[2147483647,0,0,1,1,2,2],"right_children":[2,4,6,-1,-1,-1,-1],"split_conditions":[1E0,3.74E2,2.49E2,5.096873E-4,-5.4535646E-2,9.04182E-2,3.148745E-3],"split_indices":[5,6,6,0,0,0,0],"split_type":[0,0,0,0,0,0,0],"sum_hessian":[8.974981E1,7.297772E1,1.6772087E1,6.01524E1,1.2825324E1,6.566009E0,1.0206078E1],"tree_param":{"num_deleted":"0","num_feature":"7","num_nodes":"7","size_leaf_vector":"1"}},{"base_weights":[2.7910115E-2,3.1190398E-1,-1.8440458E-1,1.7113863E-3,6.0107537E-2,-4.6479095E-2,-0E0],"categories":[],"categories_nodes":[],"categories_segments":[],"categories_sizes":[],"default_left":[0,0,0,0,0,0,0],"id":32,"left_children":[1,3,5,-1,-1,-1,-1],"loss_changes":[5.2631407E0,2.9079456E0,2.3661513E0,0E0,0E0,0E0,0E0],"parents":[2147483647,0,0,1,1,2,2],"right_children":[2,4,6,-1,-1,-1,-1],"split_conditions":[2.78E2,1E0,2E0,1.7113863E-3,6.0107537E-2,-4.6479095E-2,-0E0],"split_indices":[6,0,2,0,0,0,0],"split_type":[0,0,0,0,0,0,0],"sum_hessian":[8.427711E1,3.6859486E1,4.741762E1,1.9633135E1,1.7226353E1,1.7574196E1,2.9843426E1],"tree_param":{"num_deleted":"0","num_feature":"7","num_nodes":"7","size_leaf_vector":"1"}},{"base_weights":[-0E0,-1.0717793E-1,4.9047545E-1,-3.6250155E-2,2.5612174E-3,7.609945E-2,-0E0],"categories":[],"categories_nodes":[],"categories_segments":[],"categories_sizes":[],"default_left":[0,0,0,0,0,0,0],"id":33,"left_children":[1,3,5,-1,-1,-1,-1],"loss_changes":[4.655388E0,2.5919318E0,1.9137256E0,0E0,0E0,0E0,0E0],"parents":[2147483647,0,0,1,1,2,2],"right_children":[2,4,6,-1,-1,-1,-1],"split_conditions":[1E0,1E0,3.02E2,-3.6250155E-2,2.5612174E-3,7.609945E-2,-0E0],"split_indices":[5,0,6,0,0,0,0],"split_type":[0,0,0,0,0,0,0],"sum_hessian":[8.515775E1,7.020606E1,1.4951687E1,2.4716875E1,4.548919E1,8.93099E0,6.020696E0],"tree_param":{"num_deleted":"0","num_feature":"7","num_nodes":"7","size_leaf_vector":"1"}},{"base_weights":[4.6499718E-2,1.4121515E-1,-3.48977E-2,-6.9561726E-3,4.7891118E-2],"categories":[],"categories_nodes":[],"categories_segments":[],"categories_sizes":[],"default_left":[0,0,0,0,0],"id":34,"left_children":[1,3,-1,-1,-1],"loss_changes":[3.098205E0,5.194734E0,0E0,0E0,0E0],"parents":[2147483647,0,0,1,1],"right_children":[2,4,-1,-1,-1],"split_conditions":[3.77E2,7.2E1,-3.48977E-2,-6.9561726E-3,4.7891118E-2],"split_indices":[6,1,0,0,0],"split_type":[0,0,0,0,0],"sum_hessian":[8.316964E1,6.863822E1,1.4531417E1,4.1837963E1,2.6800259E1],"tree_param":{"num_deleted":"0","num_feature":"7","num_nodes":"5","size_leaf_vector":"1"}},{"base_weights":[6.850593E-4,5.8390375E-2,-4.3726362E-2,-3.922366E-2,2.5420345E-3],"categories":[],"categories_nodes":[],"categories_segments":[],"categories_sizes":[],"default_left":[0,0,0,0,0],"id":35,"left_children":[1,-1,3,-1,-1],"loss_changes":[2.5898027E0,0E0,2.1800284E0,0E0,0E0],"parents":[2147483647,0,0,2,2],"right_children":[2,-1,4,-1,-1],"split_conditions":[1.76E2,5.8390375E-2,1E0,-3.922366E-2,2.5420345E-3],"split_indices":[6,0,3,0,0],"split_type":[0,0,0,0,0],"sum_hessian":[8.757308E1,6.1337924E0,8.143929E1,1.3906554E1,6.753274E1],"tree_param":{"num_deleted":"0","num_feature":"7","num_nodes":"5","size_leaf_vector":"1"}},{"base_weights":[-3.175852E-2,-3.2658103E-1,2.3035863E-2,1.9507127E-2,-7.6507956E-2,-1.16575295E-2,1.4138842E-2],"categories":[],"categories_nodes":[],"categories_segments":[],"categories_sizes":[],"default_left":[0,0,0,0,0,0,0],"id":36,"left_children":[1,3,5,-1,-1,-1,-1],"loss_changes":[1.5340556E0,3.827322E0,1.2064513E0,0E0,0E0,0E0,0E0],"parents":[2147483647,0,0,1,1,2,2],"right_children":[2,4,6,-1,-1,-1,-1],"split_conditions":[1E0,2.49E2,1E0,1.9507127E-2,-7.6507956E-2,-1.16575295E-2,1.4138842E-2],"split_indices":[3,6,2,0,0,0,0],"split_type":[0,0,0,0,0,0,0],"sum_hessian":[8.410013E1,1.3833509E1,7.0266624E1,6.0505085E0,7.7830005E0,3.0306631E1,3.995999E1],"tree_param":{"num_deleted":"0","num_feature":"7","num_nodes":"7","size_leaf_vector":"1"}},{"base_weights":[-3.5836227E-2,2.0463291E-1,-1.4897755E-1,-4.226497E-2,4.709373E-2,-6.184373E-2,-5.16539E-3],"categories":[],"categories_nodes":[],"categories_segments":[],"categories_sizes":[],"default_left":[0,0,0,0,0,0,0],"id":37,"left_children":[1,3,5,-1,-1,-1,-1],"loss_changes":[2.3268967E0,4.6233807E0,2.3783612E0,0E0,0E0,0E0,0E0],"parents":[2147483647,0,0,1,1,2,2],"right_children":[2,4,6,-1,-1,-1,-1],"split_conditions":[2.36E2,2E0,1E0,-4.226497E-2,4.709373E-2,-6.184373E-2,-5.16539E-3],"split_indices":[6,4,3,0,0,0,0],"split_type":[0,0,0,0,0,0,0],"sum_hessian":[8.4427986E1,2.5340885E1,5.90871E1,6.817517E0,1.8523369E1,8.344384E0,5.0742718E1],"tree_param":{"num_deleted":"0","num_feature":"7","num_nodes":"7","size_leaf_vector":"1"}},{"base_weights":[-5.8059804E-3,5.7040166E-2,-5.9040755E-2,-1.2664057E-2,2.5414962E-2],"categories":[],"categories_nodes":[],"categories_segments":[],"categories_sizes":[],"default_left":[0,0,0,0,0],"id":38,"left_children":[1,3,-1,-1,-1],"loss_changes":[3.4254775E0,2.8816948E0,0E0,0E0,0E0],"parents":[2147483647,0,0,1,1],"right_children":[2,4,-1,-1,-1],"split_conditions":[4.28E2,2E0,-5.9040755E-2,-1.2664057E-2,2.5414962E-2],"split_indices":[6,2,0,0,0],"split_type":[0,0,0,0,0],"sum_hessian":[8.406044E1,7.5943474E1,8.11697E0,3.8182823E1,3.7760647E1],"tree_param":{"num_deleted":"0","num_feature":"7","num_nodes":"5","size_leaf_vector":"1"}},{"base_weights":[1.0925679E-2,-7.097436E-2,4.1441396E-1,-1.5243172E-2,3.698175E-2,6.0224712E-2,7.165128E-3],"categories":[],"categories_nodes":[],"categories_segments":[],"categories_sizes":[],"default_left":[0,0,0,0,0,0,0],"id":39,"left_children":[1,3,5,-1,-1,-1,-1],"loss_changes":[2.8979478E0,2.3771477E0,5.8217025E-1,0E0,0E0,0E0,0E0],"parents":[2147483647,0,0,1,1,2,2],"right_children":[2,4,6,-1,-1,-1,-1],"split_conditions":[1E0,7.6E1,7.2E1,-1.5243172E-2,3.698175E-2,6.0224712E-2,7.165128E-3],"split_indices":[5,1,1,0,0,0,0],"split_type":[0,0,0,0,0,0,0],"sum_hessian":[8.0608635E1,6.666241E1,1.3946229E1,5.777435E1,8.888062E0,7.5778246E0,6.3684044E0],"tree_param":{"num_deleted":"0","num_feature":"7","num_nodes":"7","size_leaf_vector":"1"}},{"base_weights":[-2.4472672E-2,-1.0518003E-1,3.2534108E-2,-3.2854684E-2,4.3934174E-3],"categories":[],"categories_nodes":[],"categories_segments":[],"categories_sizes":[],"default_left":[0,0,0,0,0],"id":40,"left_children":[1,3,-1,-1,-1],"loss_changes":[2.3036964E0,2.501598E0,0E0,0E0,0E0],"parents":[2147483647,0,0,1,1],"right_children":[2,4,-1,-1,-1],"split_conditions":[1E0,1E0,3.2534108E-2,-3.2854684E-2,4.3934174E-3],"split_indices":[5,2,0,0,0],"split_type":[0,0,0,0,0],"sum_hessian":[8.3284195E1,6.9400986E1,1.3883207E1,2.8643719E1,4.075727E1],"tree_param":{"num_deleted":"0","num_feature":"7","num_nodes":"5","size_leaf_vector":"1"}},{"base_weights":[-0E0,2.4817356E-1,-1.2444756E-1,-3.229473E-2,4.8589256E-2,-4.3358967E-2,-0E0],"categories":[],"categories_nodes":[],"categories_segments":[],"categories_sizes":[],"default_left":[0,0,0,0,0,0,0],"id":41,"left_children":[1,3,5,-1,-1,-1,-1],"loss_changes":[2.590309E0,4.055515E0,1.9741017E0,0E0,0E0,0E0,0E0],"parents":[2147483647,0,0,1,1,2,2],"right_children":[2,4,6,-1,-1,-1,-1],"split_conditions":[2.47E2,2E0,1E0,-3.229473E-2,4.8589256E-2,-4.3358967E-2,-0E0],"split_indices":[6,4,0,0,0,0,0],"split_type":[0,0,0,0,0,0,0],"sum_hessian":[8.1559746E1,2.7115412E1,5.4444332E1,7.24571E0,1.9869701E1,1.4067973E1,4.037636E1],"tree_param":{"num_deleted":"0","num_feature":"7","num_nodes":"7","size_leaf_vector":"1"}},{"base_weights":[-1.1375587E-2,-1.9603465E-1,8.904905E-2,-3.8767304E-2,1.882613E-3,1.7467687E-2,-3.1296715E-2],"categories":[],"categories_nodes":[],"categories_segments":[],"categories_sizes":[],"default_left":[0,0,0,0,0,0,0],"id":42,"left_children":[1,3,5,-1,-1,-1,-1],"loss_changes":[1.5889356E0,1.4641106E0,1.7740321E0,0E0,0E0,0E0,0E0],"parents":[2147483647,0,0,1,1,2,2],"right_children":[2,4,6,-1,-1,-1,-1],"split_conditions":[1E0,7.1E1,4.28E2,-3.8767304E-2,1.882613E-3,1.7467687E-2,-3.1296715E-2],"split_indices":[0,1,6,0,0,0,0],"split_type":[0,0,0,0,0,0,0],"sum_hessian":[8.08572E1,2.990155E1,5.0955647E1,1.6609774E1,1.3291777E1,4.3499634E1,7.456015E0],"tree_param":{"num_deleted":"0","num_feature":"7","num_nodes":"7","size_leaf_vector":"1"}},{"base_weights":[7.81475E-3,5.189376E-2,-3.326114E-2,-2.4341987E-2,6.75376E-3],"categories":[],"categories_nodes":[],"categories_segments":[],"categories_sizes":[],"default_left":[0,0,0,0,0],"id":43,"left_children":[1,-1,3,-1,-1],"loss_changes":[1.997639E0,0E0,1.7278701E0,0E0,0E0],"parents":[2147483647,0,0,2,2],"right_children":[2,-1,4,-1,-1],"split_conditions":[1.76E2,5.189376E-2,1E0,-2.4341987E-2,6.75376E-3],"split_indices":[6,0,0,0,0],"split_type":[0,0,0,0,0],"sum_hessian":[8.17604E1,6.1219254E0,7.563847E1,2.5667953E1,4.9970524E1],"tree_param":{"num_deleted":"0","num_feature":"7","num_nodes":"5","size_leaf_vector":"1"}},{"base_weights":[6.236511E-2,1.4436737E-1,-3.1877026E-2,-4.8283054E-3,3.841566E-2],"categories":[],"categories_nodes":[],"categories_segments":[],"categories_sizes":[],"default_left":[0,0,0,0,0],"id":44,"left_children":[1,3,-1,-1,-1],"loss_changes":[2.5072021E0,3.3679166E0,0E0,0E0,0E0],"parents":[2147483647,0,0,1,1],"right_children":[2,4,-1,-1,-1],"split_conditions":[3.77E2,7.1E1,-3.1877026E-2,-4.8283054E-3,3.841566E-2],"split_indices":[6,1,0,0,0],"split_type":[0,0,0,0,0],"sum_hessian":[8.053794E1,6.7868866E1,1.2669073E1,3.6920135E1,3.0948734E1],"tree_param":{"num_deleted":"0","num_feature":"7","num_nodes":"5","size_leaf_vector":"1"}},{"base_weights":[2.1259508E-3,5.1883098E-2,-4.0561706E-2,-2.0517264E-2,5.2956077E-3],"categories":[],"categories_nodes":[],"categories_segments":[],"categories_sizes":[],"default_left":[0,0,0,0,0],"id":45,"left_children":[1,-1,3,-1,-1],"loss_changes":[2.0519361E0,0E0,1.2425736E0,0E0,0E0],"parents":[2147483647,0,0,2,2],"right_children":[2,-1,4,-1,-1],"split_conditions":[1.76E2,5.1883098E-2,1E0,-2.0517264E-2,5.2956077E-3],"split_indices":[6,0,2,0,0],"split_type":[0,0,0,0,0],"sum_hessian":[8.02333E1,6.165309E0,7.406799E1,2.8338654E1,4.572934E1],"tree_param":{"num_deleted":"0","num_feature":"7","num_nodes":"5","size_leaf_vector":"1"}},{"base_weights":[-3.1620417E-2,-1.2303478E-1,3.4377077E-1,-4.9081475E-2,-3.2547284E-3,7.0567243E-3,4.592915E-2],"categories":[],"categories_nodes":[],"categories_segments":[],"categories_sizes":[],"default_left":[0,0,0,0,0,0,0],"id":46,"left_children":[1,3,5,-1,-1,-1,-1],"loss_changes":[2.7833755E0,2.006277E0,1.9073367E-1,0E0,0E0,0E0,0E0],"parents":[2147483647,0,0,1,1,2,2],"right_children":[2,4,6,-1,-1,-1,-1],"split_conditions":[1E0,1E0,7E1,-4.9081475E-2,-3.2547284E-3,7.0567243E-3,4.592915E-2],"split_indices":[5,3,1,0,0,0,0],"split_type":[0,0,0,0,0,0,0],"sum_hessian":[8.209347E1,6.7628845E1,1.44646225E1,1.1389065E1,5.6239784E1,6.063557E0,8.401065E0],"tree_param":{"num_deleted":"0","num_feature":"7","num_nodes":"7","size_leaf_vector":"1"}},{"base_weights":[-0E0,4.0164884E-2,-4.318761E-2,-2.5693208E-2,1.0859792E-2],"categories":[],"categories_nodes":[],"categories_segments":[],"categories_sizes":[],"default_left":[0,0,0,0,0],"id":47,"left_children":[1,3,-1,-1,-1],"loss_changes":[1.4293684E0,1.5035048E0,0E0,0E0,0E0],"parents":[2147483647,0,0,1,1],"right_children":[2,4,-1,-1,-1],"split_conditions":[4.48E2,1E0,-4.318761E-2,-2.5693208E-2,1.0859792E-2],"split_indices":[6,3,0,0,0],"split_type":[0,0,0,0,0],"sum_hessian":[8.123019E1,7.5226006E1,6.0041847E0,1.2199942E1,6.3026062E1],"tree_param":{"num_deleted":"0","num_feature":"7","num_nodes":"5","size_leaf_vector":"1"}},{"base_weights":[2.2068582E-2,-5.338316E-2,3.6922497E-1,-1.1732444E-2,1.9149572E-2,5.6701183E-2,-0E0],"categories":[],"categories_nodes":[],"categories_segments":[],"categories_sizes":[],"default_left":[0,0,0,0,0,0,0],"id":48,"left_children":[1,3,5,-1,-1,-1,-1],"loss_changes":[2.3205662E0,1.032824E0,9.8901725E-1,0E0,0E0,0E0,0E0],"parents":[2147483647,0,0,1,1,2,2],"right_children":[2,4,6,-1,-1,-1,-1],"split_conditions":[1E0,7.5E1,3.03E2,-1.1732444E-2,1.9149572E-2,5.6701183E-2,-0E0],"split_indices":[5,1,6,0,0,0,0],"split_type":[0,0,0,0,0,0,0],"sum_hessian":[8.081154E1,6.58956E1,1.4915942E1,5.4284E1,1.1611594E1,8.825091E0,6.0908504E0],"tree_param":{"num_deleted":"0","num_feature":"7","num_nodes":"7","size_leaf_vector":"1"}},{"base_weights":[-0E0,3.8938444E-2,-3.2197714E-2,-6.8424703E-3,1.7963272E-2],"categories":[],"categories_nodes":[],"categories_segments":[],"categories_sizes":[],"default_left":[0,0,0,0,0],"id":49,"left_children":[1,3,-1,-1,-1],"loss_changes":[1.0081668E0,1.2005646E0,0E0,0E0,0E0],"parents":[2147483647,0,0,1,1],"right_children":[2,4,-1,-1,-1],"split_conditions":[4.28E2,7.1E1,-3.2197714E-2,-6.8424703E-3,1.7963272E-2],"split_indices":[6,1,0,0,0],"split_type":[0,0,0,0,0],"sum_hessian":[8.161266E1,7.3984505E1,7.6281605E0,4.0238525E1,3.3745975E1],"tree_param":{"num_deleted":"0","num_feature":"7","num_nodes":"5","size_leaf_vector":"1"}},{"base_weights":[1.4936613E-2,-2.5207135E-1,7.438687E-2,-6.830209E-2,1.4548409E-2,-1.0037163E-2,2.0466248E-2],"categories":[],"categories_nodes":[],"categories_segments":[],"categories_sizes":[],"default_left":[0,0,0,0,0,0,0],"id":50,"left_children":[1,3,5,-1,-1,-1,-1],"loss_changes":[1.2213539E0,2.6831048E0,1.6400781E0,0E0,0E0,0E0,0E0],"parents":[2147483647,0,0,1,1,2,2],"right_children":[2,4,6,-1,-1,-1,-1],"split_conditions":[1E0,7E1,1E0,-6.830209E-2,1.4548409E-2,-1.0037163E-2,2.0466248E-2],"split_indices":[3,1,2,0,0,0,0],"split_type":[0,0,0,0,0,0,0],"sum_hessian":[8.035758E1,1.2512039E1,6.784554E1,6.262804E0,6.249235E0,2.7434711E1,4.041083E1],"tree_param":{"num_deleted":"0","num_feature":"7","num_nodes":"7","size_leaf_vector":"1"}},{"base_weights":[-1.3054503E-2,-7.869447E-2,2.422022E-1,-2.1388322E-2,1.8157726E-4,4.0187337E-2,-0E0],"categories":[],"categories_nodes":[],"categories_segments":[],"categories_sizes":[],"default_left":[0,0,0,0,0,0,0],"id":51,"left_children":[1,3,5,-1,-1,-1,-1],"loss_changes":[1.2868781E0,8.2895124E-1,5.424745E-1,0E0,0E0,0E0,0E0],"parents":[2147483647,0,0,1,1,2,2],"right_children":[2,4,6,-1,-1,-1,-1],"split_conditions":[1E0,1E0,7.2E1,-2.1388322E-2,1.8157726E-4,4.0187337E-2,-0E0],"split_indices":[5,2,1,0,0,0,0],"split_type":[0,0,0,0,0,0,0],"sum_hessian":[7.954721E1,6.538404E1,1.416317E1,2.6104488E1,3.927955E1,7.8665977E0,6.2965727E0],"tree_param":{"num_deleted":"0","num_feature":"7","num_nodes":"7","size_leaf_vector":"1"}},{"base_weights":[1.9907663E-2,1.9058272E-1,-1.10579334E-1,-0E0,3.6486506E-2,2.7841358E-2,-2.498786E-2],"categories":[],"categories_nodes":[],"categories_segments":[],"categories_sizes":[],"default_left":[0,0,0,0,0,0,0],"id":52,"left_children":[1,3,5,-1,-1,-1,-1],"loss_changes":[1.868728E0,1.2996767E0,2.4921448E0,0E0,0E0,0E0,0E0],"parents":[2147483647,0,0,1,1,2,2],"right_children":[2,4,6,-1,-1,-1,-1],"split_conditions":[2.78E2,7.1E1,6.4E1,-0E0,3.6486506E-2,2.7841358E-2,-2.498786E-2],"split_indices":[6,1,1,0,0,0,0],"split_type":[0,0,0,0,0,0,0],"sum_hessian":[8.016661E1,3.6195145E1,4.3971466E1,1.7284231E1,1.8910915E1,1.0384553E1,3.3586914E1],"tree_param":{"num_deleted":"0","num_feature":"7","num_nodes":"7","size_leaf_vector":"1"}},{"base_weights":[-1.0429391E-3,-2.174924E-1,1.3369729E-1,-3.0176416E-2,4.881467E-3,-1.8247977E-3,4.018679E-2],"categories":[],"categories_nodes":[],"categories_segments":[],"categories_sizes":[],"default_left":[0,0,0,0,0,0,0],"id":53,"left_children":[1,3,5,-1,-1,-1,-1],"loss_changes":[2.4147317E0,8.7365735E-1,2.1845996E0,0E0,0E0,0E0,0E0],"parents":[2147483647,0,0,1,1,2,2],"right_children":[2,4,6,-1,-1,-1,-1],"split_conditions":[1E0,1E0,4E0,-3.0176416E-2,4.881467E-3,-1.8247977E-3,4.018679E-2],"split_indices":[2,5,3,0,0,0,0],"split_type":[0,0,0,0,0,0,0],"sum_hessian":[7.936346E1,3.1637314E1,4.7726147E1,2.5357445E1,6.2798686E0,2.9869549E1,1.7856596E1],"tree_param":{"num_deleted":"0","num_feature":"7","num_nodes":"7","size_leaf_vector":"1"}},{"base_weights":[3.622801E-2,-1.2561172E-1,1.3206896E-1,-3.440875E-2,1.3374725E-2,3.179576E-2,3.1725512E-4],"categories":[],"categories_nodes":[],"categories_segments":[],"categories_sizes":[],"default_left":[0,0,0,0,0,0,0],"id":54,"left_children":[1,3,5,-1,-1,-1,-1],"loss_changes":[1.2687417E0,1.7672502E0,1.1083028E0,0E0,0E0,0E0,0E0],"parents":[2147483647,0,0,1,1,2,2],"right_children":[2,4,6,-1,-1,-1,-1],"split_conditions":[2E0,4E0,2.46E2,-3.440875E-2,1.3374725E-2,3.179576E-2,3.1725512E-4],"split_indices":[4,3,6,0,0,0,0],"split_type":[0,0,0,0,0,0,0],"sum_hessian":[7.951923E1,2.7520216E1,5.199902E1,1.5806483E1,1.1713733E1,1.9103275E1,3.289574E1],"tree_param":{"num_deleted":"0","num_feature":"7","num_nodes":"7","size_leaf_vector":"1"}},{"base_weights":[-0E0,-2.5153646E-2,4.096389E-2,8.472188E-3,-2.9283319E-2],"categories":[],"categories_nodes":[],"categories_segments":[],"categories_sizes":[],"default_left":[0,0,0,0,0],"id":55,"left_children":[1,-1,3,-1,-1],"loss_changes":[9.411066E-1,0E0,9.449E-1,0E0,0E0],"parents":[2147483647,0,0,2,2],"right_children":[2,-1,4,-1,-1],"split_conditions":[1E0,-2.5153646E-2,4.37E2,8.472188E-3,-2.9283319E-2],"split_indices":[3,0,6,0,0],"split_type":[0,0,0,0,0],"sum_hessian":[8.113149E1,1.2014702E1,6.911679E1,6.3090286E1,6.0265036E0],"tree_param":{"num_deleted":"0","num_feature":"7","num_nodes":"5","size_leaf_vector":"1"}},{"base_weights":[4.7756493E-2,-2.3064603E-1,1.0886978E-1,7.2325445E-3,-5.6938685E-2,-2.7342348E-3,2.3453372E-2],"categories":[],"categories_nodes":[],"categories_segments":[],"categories_sizes":[],"default_left":[0,0,0,0,0,0,0],"id":56,"left_children":[1,3,5,-1,-1,-1,-1],"loss_changes":[1.31716E0,1.6404543E0,1.2629583E0,0E0,0E0,0E0,0E0],"parents":[2147483647,0,0,1,1,2,2],"right_children":[2,4,6,-1,-1,-1,-1],"split_conditions":[1E0,2.54E2,2E0,7.2325445E-3,-5.6938685E-2,-2.7342348E-3,2.3453372E-2],"split_indices":[3,6,2,0,0,0,0],"split_type":[0,0,0,0,0,0,0],"sum_hessian":[7.851864E1,1.2161436E1,6.635721E1,6.055658E0,6.1057787E0,3.0308338E1,3.6048866E1],"tree_param":{"num_deleted":"0","num_feature":"7","num_nodes":"7","size_leaf_vector":"1"}},{"base_weights":[-4.313698E-2,-3.3048455E-2,1.5148979E-3,1.1536016E-2,-9.303849E-3],"categories":[],"categories_nodes":[],"categories_segments":[],"categories_sizes":[],"default_left":[0,0,0,0,0],"id":57,"left_children":[1,-1,3,-1,-1],"loss_changes":[1.1958059E0,0E0,7.649082E-1,0E0,0E0],"parents":[2147483647,0,0,2,2],"right_children":[2,-1,4,-1,-1],"split_conditions":[1E0,-3.3048455E-2,7E1,1.1536016E-2,-9.303849E-3],"split_indices":[3,0,1,0,0],"split_type":[0,0,0,0,0],"sum_hessian":[7.934073E1,1.1315922E1,6.802481E1,3.3163216E1,3.486159E1],"tree_param":{"num_deleted":"0","num_feature":"7","num_nodes":"5","size_leaf_vector":"1"}},{"base_weights":[1.7179966E-2,-1.3660875E-1,1.1316661E-1,-2.4239788E-2,-0E0,-0E0,3.0311042E-2],"categories":[],"categories_nodes":[],"categories_segments":[],"categories_sizes":[],"default_left":[0,0,0,0,0,0,0],"id":58,"left_children":[1,3,5,-1,-1,-1,-1],"loss_changes":[1.1586702E0,3.9591998E-1,1.138758E0,0E0,0E0,0E0,0E0],"parents":[2147483647,0,0,1,1,2,2],"right_children":[2,4,6,-1,-1,-1,-1],"split_conditions":[1E0,7.1E1,4E0,-2.4239788E-2,-0E0,-0E0,3.0311042E-2],"split_indices":[0,1,3,0,0,0,0],"split_type":[0,0,0,0,0,0,0],"sum_hessian":[7.72386E1,2.7517735E1,4.9720863E1,1.4795919E1,1.2721815E1,3.125631E1,1.8464554E1],"tree_param":{"num_deleted":"0","num_feature":"7","num_nodes":"7","size_leaf_vector":"1"}},{"base_weights":[3.6463577E-2,1.973821E-1,-3.787816E-2,-0E0,6.07811E-2,-4.1211944E-2,1.2722657E-3],"categories":[],"categories_nodes":[],"categories_segments":[],"categories_sizes":[],"default_left":[0,0,0,0,0,0,0],"id":59,"left_children":[1,3,5,-1,-1,-1,-1],"loss_changes":[1.0547739E0,2.251562E0,1.228192E0,0E0,0E0,0E0,0E0],"parents":[2147483647,0,0,1,1,2,2],"right_children":[2,4,6,-1,-1,-1,-1],"split_conditions":[2.47E2,2.17E2,1E0,-0E0,6.07811E-2,-4.1211944E-2,1.2722657E-3],"split_indices":[6,6,3,0,0,0,0],"split_type":[0,0,0,0,0,0,0],"sum_hessian":[7.987841E1,2.6843714E1,5.3034695E1,1.8812754E1,8.030959E0,6.6426573E0,4.6392036E1],"tree_param":{"num_deleted":"0","num_feature":"7","num_nodes":"7","size_leaf_vector":"1"}},{"base_weights":[-0E0,5.230763E-2,-2.7160016E-1,-5.755488E-4,3.4873296E-2,-3.948151E-2,-2.2485668E-3],"categories":[],"categories_nodes":[],"categories_segments":[],"categories_sizes":[],"default_left":[0,0,0,0,0,0,0],"id":60,"left_children":[1,3,5,-1,-1,-1,-1],"loss_changes":[1.2280749E0,1.362352E0,2.1483874E-1,0E0,0E0,0E0,0E0],"parents":[2147483647,0,0,1,1,2,2],"right_children":[2,4,6,-1,-1,-1,-1],"split_conditions":[3.77E2,3.29E2,4E0,-5.755488E-4,3.4873296E-2,-3.948151E-2,-2.2485668E-3],"split_indices":[6,6,3,0,0,0,0],"split_type":[0,0,0,0,0,0,0],"sum_hessian":[8.115993E1,6.807385E1,1.3086077E1,5.633324E1,1.174061E1,7.021285E0,6.0647917E0],"tree_param":{"num_deleted":"0","num_feature":"7","num_nodes":"7","size_leaf_vector":"1"}},{"base_weights":[-2.386536E-2,-2.1164334E-1,7.02945E-2,-5.1014233E-2,1.1130335E-2,2.5722856E-2,-2.6665858E-3],"categories":[],"categories_nodes":[],"categories_segments":[],"categories_sizes":[],"default_left":[0,0,0,0,0,0,0],"id":61,"left_children":[1,3,5,-1,-1,-1,-1],"loss_changes":[1.4969695E0,3.0211825E0,1.0672522E0,0E0,0E0,0E0,0E0],"parents":[2147483647,0,0,1,1,2,2],"right_children":[2,4,6,-1,-1,-1,-1],"split_conditions":[2E0,4E0,2.46E2,-5.1014233E-2,1.1130335E-2,2.5722856E-2,-2.6665858E-3],"split_indices":[4,3,6,0,0,0,0],"split_type":[0,0,0,0,0,0,0],"sum_hessian":[7.882615E1,2.7682611E1,5.1143536E1,1.4889172E1,1.2793439E1,1.8664078E1,3.2479458E1],"tree_param":{"num_deleted":"0","num_feature":"7","num_nodes":"7","size_leaf_vector":"1"}},{"base_weights":[2.9137444E-3,-1.8622302E-1,1.2048767E-1,-0E0,-4.2439748E-2,3.5646003E-2,-0E0],"categories":[],"categories_nodes":[],"categories_segments":[],"categories_sizes":[],"default_left":[0,0,0,0,0,0,0],"id":62,"left_children":[1,3,5,-1,-1,-1,-1],"loss_changes":[1.7746416E0,1.4351459E0,1.4350605E0,0E0,0E0,0E0,0E0],"parents":[2147483647,0,0,1,1,2,2],"right_children":[2,4,6,-1,-1,-1,-1],"split_conditions":[1E0,2.46E2,2.78E2,-0E0,-4.2439748E-2,3.5646003E-2,-0E0],"split_indices":[0,6,6,0,0,0,0],"split_type":[0,0,0,0,0,0,0],"sum_hessian":[7.927285E1,2.8534288E1,5.0738564E1,1.5879733E1,1.2654556E1,1.6205256E1,3.453331E1],"tree_param":{"num_deleted":"0","num_feature":"7","num_nodes":"7","size_leaf_vector":"1"}},{"base_weights":[-1.45591255E-2,-8.658378E-2,2.7894992E-2,-4.433007E-2,-1.1949398E-3],"categories":[],"categories_nodes":[],"categories_segments":[],"categories_sizes":[],"default_left":[0,0,0,0,0],"id":63,"left_children":[1,3,-1,-1,-1],"loss_changes":[1.5647635E0,1.479003E0,0E0,0E0,0E0],"parents":[2147483647,0,0,1,1],"right_children":[2,4,-1,-1,-1],"split_conditions":[1E0,1E0,2.7894992E-2,-4.433007E-2,-1.1949398E-3],"split_indices":[5,3,0,0,0],"split_type":[0,0,0,0,0],"sum_hessian":[7.642682E1,6.3301655E1,1.3125164E1,8.938916E0,5.436274E1],"tree_param":{"num_deleted":"0","num_feature":"7","num_nodes":"5","size_leaf_vector":"1"}},{"base_weights":[2.0261385E-2,-1.7326614E-2,2.4117844E-1,-1.9297156E-2,6.4712204E-3,4.5923807E-2,-0E0],"categories":[],"categories_nodes":[],"categories_segments":[],"categories_sizes":[],"default_left":[0,0,0,0,0,0,0],"id":64,"left_children":[1,3,5,-1,-1,-1,-1],"loss_changes":[7.7397585E-1,1.037803E0,7.6917225E-1,0E0,0E0,0E0,0E0],"parents":[2147483647,0,0,1,1,2,2],"right_children":[2,4,6,-1,-1,-1,-1],"split_conditions":[7.6E1,1E0,2.73E2,-1.9297156E-2,6.4712204E-3,4.5923807E-2,-0E0],"split_indices":[1,0,6,0,0,0,0],"split_type":[0,0,0,0,0,0,0],"sum_hessian":[7.822502E1,6.5704056E1,1.252096E1,2.2428074E1,4.327598E1,6.376243E0,6.144717E0],"tree_param":{"num_deleted":"0","num_feature":"7","num_nodes":"7","size_leaf_vector":"1"}}]},"name":"gbtree"},"learner_model_param":{"base_score":"[2.1015514E-1]","boost_from_average":"1","num_class":"0","num_feature":"7","num_target":"1"},"objective":{"name":"binary:logistic","reg_loss_param":{"scale_pos_weight":"1"}}},"version":[3,1,3]}